digraph Tree {
node [shape=box, style="rounded", color="black", fontname=helvetica] ;
edge [fontname=helvetica] ;
0 [label="Warpcount(Ne) <= 25.0\nentropy = 0.3\nsamples = 25\nvalue = [34, 0, 2, 0]"] ;
1 [label="Pickdensity(inch-1) <= 73.5\nentropy = 0.8\nsamples = 8\nvalue = [6, 0, 2, 0]"] ;
0 -> 1 [labeldistance=2.5, labelangle=45, headlabel="True"] ;
2 [label="entropy = 0.0\nsamples = 6\nvalue = [6, 0, 0, 0]"] ;
1 -> 2 ;
3 [label="entropy = 0.0\nsamples = 2\nvalue = [0, 0, 2, 0]"] ;
1 -> 3 ;
4 [label="entropy = 0.0\nsamples = 17\nvalue = [28, 0, 0, 0]"] ;
0 -> 4 [labeldistance=2.5, labelangle=-45, headlabel="False"] ;
}